{
    "type": "LSTM",
    "options": {
        "inputSize": 30,
        "inputRange": 30,
        "hiddenLayers": [
            20,
            20
        ],
        "outputSize": 30,
        "decayRate": 0.999,
        "smoothEps": 1e-8,
        "regc": 0.000001,
        "clipval": 5,
        "maxPredictionLength": 100,
        "dataFormatter": {
            "indexTable": {
                "r": 0,
                "i": 1,
                "s": 2,
                "n": 3,
                "g": 4,
                "p": 5,
                "o": 6,
                "t": 7,
                "v": 8,
                "e": 9,
                "b": 10,
                "d": 11,
                "a": 12,
                ":": 13,
                ")": 14,
                " ": 15,
                ";": 16,
                "D": 17,
                "w": 18,
                "c": 19,
                "'": 20,
                "h": 21,
                "m": 22,
                "y": 23,
                "u": 24,
                "l": 25,
                "k": 26,
                "stop-input": 27,
                "start-output": 28,
                "unrecognized": 29
            },
            "characterTable": {
                "0": "r",
                "1": "i",
                "2": "s",
                "3": "n",
                "4": "g",
                "5": "p",
                "6": "o",
                "7": "t",
                "8": "v",
                "9": "e",
                "10": "b",
                "11": "d",
                "12": "a",
                "13": ":",
                "14": ")",
                "15": " ",
                "16": ";",
                "17": "D",
                "18": "w",
                "19": "c",
                "20": "'",
                "21": "h",
                "22": "m",
                "23": "y",
                "24": "u",
                "25": "l",
                "26": "k",
                "27": null,
                "28": null,
                "29": null
            },
            "values": [
                {
                    "input": "rising",
                    "output": "positive"
                },
                {
                    "input": "bored",
                    "output": "negative"
                },
                {
                    "input": ":) ;) :D",
                    "output": "positive"
                },
                {
                    "input": "we can't have nice things",
                    "output": "negative"
                },
                {
                    "input": "tempted",
                    "output": "negative"
                },
                {
                    "input": "happy",
                    "output": "positive"
                },
                {
                    "input": "good",
                    "output": "positive"
                },
                {
                    "input": "congratulations",
                    "output": "positive"
                },
                {
                    "input": "sucks",
                    "output": "negative"
                },
                {
                    "input": "bad",
                    "output": "negative"
                }
            ],
            "characters": [
                "r",
                "i",
                "s",
                "n",
                "g",
                "p",
                "o",
                "t",
                "v",
                "e",
                "b",
                "d",
                "a",
                ":",
                ")",
                " ",
                ";",
                "D",
                "w",
                "c",
                "'",
                "h",
                "m",
                "y",
                "u",
                "l",
                "k",
                "stop-input",
                "start-output",
                "unrecognized"
            ],
            "specialIndexes": [
                27,
                28,
                29
            ]
        }
    },
    "trainOpts": {
        "iterations": 5000,
        "errorThresh": 0.005,
        "log": true,
        "logPeriod": 10,
        "learningRate": 0.0001,
        "callbackPeriod": 10,
        "timeout": "Infinity"
    },
    "input": {
        "rows": 31,
        "columns": 30,
        "weights": [
            0.20392200350761414,
            0.11303833872079849,
            0.04743984714150429,
            -0.061312880367040634,
            0.09182184934616089,
            -0.01453703735023737,
            0.18825682997703552,
            0.10959222912788391,
            -0.030345821753144264,
            -0.023786235600709915,
            0.09650512784719467,
            -0.11553233861923218,
            0.062123071402311325,
            0.05047658830881119,
            -0.14878585934638977,
            -0.11226023733615875,
            -0.05748750641942024,
            -0.0866905003786087,
            0.22567765414714813,
            -0.05355409160256386,
            -0.03283386304974556,
            -0.20399664342403412,
            -0.09041813760995865,
            0.08104030787944794,
            -0.11044297367334366,
            -0.11335501819849014,
            -0.08813557773828506,
            -0.12166771292686462,
            -0.20007912814617157,
            0.03373353183269501,
            0.4495217502117157,
            0.3377220332622528,
            0.2191169708967209,
            -0.40791183710098267,
            0.2901208698749542,
            -0.04083437845110893,
            0.3757683038711548,
            0.24694380164146423,
            0.06259352713823318,
            0.175593301653862,
            0.19816657900810242,
            -0.19299565255641937,
            0.364253431558609,
            0.1816195398569107,
            -0.42056161165237427,
            -0.5716416835784912,
            -0.3442308008670807,
            -0.4190445840358734,
            0.5793361663818359,
            -0.2339228093624115,
            -0.1556713730096817,
            -0.4876295030117035,
            -0.45343825221061707,
            0.12009153515100479,
            -0.22320246696472168,
            -0.2838623821735382,
            -0.28372034430503845,
            -0.4191456735134125,
            -0.28045904636383057,
            0.23004919290542603,
            -0.10826706141233444,
            -0.042423587292432785,
            -0.08777447044849396,
            0.06909394264221191,
            -0.029152866452932358,
            0.062104035168886185,
            -0.05639214068651199,
            -0.05464530736207962,
            0.10004888474941254,
            -0.21399983763694763,
            0.21179910004138947,
            -0.18613943457603455,
            -0.1375901848077774,
            0.1720586121082306,
            0.15606816112995148,
            0.07882173359394073,
            0.047196365892887115,
            0.09977918863296509,
            -0.132296621799469,
            -0.20081867277622223,
            0.12502166628837585,
            0.1406572014093399,
            0.09834348410367966,
            0.20048154890537262,
            -0.12872730195522308,
            0.11253193020820618,
            0.09415125101804733,
            0.1544395536184311,
            0.024320831522345543,
            0.02948390692472458,
            -0.13522525131702423,
            0.47600695490837097,
            -0.0970909520983696,
            0.012737005949020386,
            -0.0002484144060872495,
            -0.1574062556028366,
            -0.091648168861866,
            0.11961760371923447,
            0.24225778877735138,
            0.5923758745193481,
            0.40617895126342773,
            -0.6386348009109497,
            0.3005603849887848,
            0.3276512920856476,
            0.10381276905536652,
            0.2712392508983612,
            0.16429643332958221,
            0.07640782743692398,
            -0.07752656191587448,
            -0.2786538302898407,
            0.01513578649610281,
            0.1644231379032135,
            0.2526197135448456,
            0.3922244608402252,
            0.16241566836833954,
            -0.16095086932182312,
            -0.6702980399131775,
            0.07130209356546402,
            0.1725308746099472,
            0.27890628576278687,
            -0.12997789680957794,
            -0.14555275440216064,
            -0.31148168444633484,
            0.32393503189086914,
            0.03023882396519184,
            0.11167193949222565,
            -0.2916587293148041,
            -0.24165195226669312,
            -0.03609171137213707,
            -0.04044799506664276,
            -0.014526313170790672,
            -0.04229380562901497,
            -0.34936338663101196,
            -0.190351665019989,
            0.27306368947029114,
            0.21351481974124908,
            0.3503042459487915,
            0.33338770270347595,
            -0.3730306625366211,
            0.07038480043411255,
            0.31917521357536316,
            0.17087042331695557,
            0.10988626629114151,
            0.07175169140100479,
            0.05153144150972366,
            0.17297422885894775,
            0.4077247977256775,
            0.35510462522506714,
            0.19769707322120667,
            -0.14939552545547485,
            0.39475154876708984,
            0.2163306474685669,
            -0.022112151607871056,
            -0.25202399492263794,
            0.3376327455043793,
            -0.02678040787577629,
            0.27774181962013245,
            0.1602112352848053,
            -0.12823759019374847,
            0.109677255153656,
            0.29891422390937805,
            -0.12143895030021667,
            0.1413324922323227,
            0.15999622642993927,
            -0.3196925222873688,
            -0.4046594798564911,
            -0.3467201590538025,
            -0.3435651361942291,
            0.3033180832862854,
            -0.16122481226921082,
            -0.010881515219807625,
            -0.41347840428352356,
            -0.35624441504478455,
            0.24561047554016113,
            -0.09143668413162231,
            -0.279296875,
            -0.09792518615722656,
            -0.29183411598205566,
            -0.3179932236671448,
            0.17993642389774323,
            0.1375335454940796,
            -0.19322024285793304,
            -0.27804872393608093,
            0.09991992264986038,
            0.06875515729188919,
            0.1298387050628662,
            0.0009008751367218792,
            -0.35797086358070374,
            -0.21752502024173737,
            -0.2763662338256836,
            0.08148320019245148,
            0.37647679448127747,
            -0.2204180210828781,
            -0.3312622904777527,
            -0.04196674004197121,
            -0.2672896385192871,
            0.06452310085296631,
            0.0422150120139122,
            -0.07062738388776779,
            -0.17719563841819763,
            0.28559762239456177,
            -0.14932820200920105,
            -0.2449110746383667,
            0.32324331998825073,
            0.22178016602993011,
            -0.045718517154455185,
            0.27093207836151123,
            0.22212819755077362,
            -0.019570378586649895,
            -0.11516840755939484,
            -0.2674391269683838,
            -0.1733996868133545,
            0.2816091477870941,
            0.37086039781570435,
            -0.32783830165863037,
            0.12042809277772903,
            -0.16197742521762848,
            -0.043690357357263565,
            0.03155513107776642,
            0.15679432451725006,
            0.06751744449138641,
            -0.1351741999387741,
            0.21857284009456635,
            0.08373060077428818,
            0.22404082119464874,
            0.21381838619709015,
            0.28352969884872437,
            0.2515023350715637,
            -0.3226234018802643,
            -0.10325486958026886,
            0.215285062789917,
            0.27701321244239807,
            0.3249780833721161,
            0.08422107249498367,
            -0.0554807148873806,
            0.11823339015245438,
            -0.20233850181102753,
            0.23358547687530518,
            0.2756587266921997,
            0.215729758143425,
            0.007886793464422226,
            0.019709181040525436,
            -0.15884476900100708,
            0.06550835072994232,
            -0.04671236872673035,
            0.12993529438972473,
            -0.14688599109649658,
            -0.03563207387924194,
            0.02454025112092495,
            0.15031851828098297,
            0.05824696272611618,
            -0.10138387978076935,
            0.21023207902908325,
            0.07788717746734619,
            0.1031741052865982,
            0.031047850847244263,
            0.10134213417768478,
            0.0007746921037323773,
            -0.0880775898694992,
            0.04166477546095848,
            0.11563657224178314,
            0.044737596064805984,
            0.009334287606179714,
            0.1217973530292511,
            0.02768023870885372,
            0.1276833713054657,
            0.07312758266925812,
            0.07907664030790329,
            0.043819233775138855,
            0.1155865341424942,
            0.04266555234789848,
            0.02913137525320053,
            -0.003970935009419918,
            0.032773833721876144,
            0.042716626077890396,
            0.1581416130065918,
            0.06998245418071747,
            -0.14332276582717896,
            0.09068094193935394,
            -0.0711345374584198,
            -0.047933198511600494,
            0.07070745527744293,
            -0.10945364832878113,
            -0.1276378333568573,
            -0.052071768790483475,
            -0.05023036524653435,
            -0.08742593228816986,
            -0.038619883358478546,
            0.09686525911092758,
            -0.15053866803646088,
            0.1304919421672821,
            -0.06938394159078598,
            -0.1051715835928917,
            0.1588045060634613,
            -0.061894871294498444,
            0.0743083655834198,
            0.08234523981809616,
            -0.04820827767252922,
            -0.04987974092364311,
            -0.10477433353662491,
            -0.27389636635780334,
            0.15613652765750885,
            0.1086067408323288,
            0.23151344060897827,
            -0.06840108335018158,
            0.42481136322021484,
            -0.23261110484600067,
            0.2181338220834732,
            0.43569573760032654,
            0.4857483208179474,
            0.5738158226013184,
            -0.7788512706756592,
            0.19434860348701477,
            0.5902265906333923,
            0.33315083384513855,
            0.30064254999160767,
            0.16807979345321655,
            0.2607611417770386,
            -0.25477123260498047,
            -0.7261847257614136,
            0.02250836230814457,
            0.379888117313385,
            0.3424978256225586,
            0.652471661567688,
            -0.4032628536224365,
            -0.010716196149587631,
            -0.20818540453910828,
            0.2410038709640503,
            0.24545316398143768,
            0.543340802192688,
            0.8351012468338013,
            0.15265633165836334,
            -0.022784719243645668,
            0.1257685422897339,
            0.6595476865768433,
            -0.15924115478992462,
            0.24558153748512268,
            0.13246490061283112,
            -0.5498199462890625,
            -0.37144899368286133,
            -0.20953935384750366,
            -0.09463050216436386,
            0.0032107201404869556,
            0.01803896762430668,
            -0.6242255568504333,
            -1.3020721673965454,
            -0.4130617082118988,
            -0.17969365417957306,
            0.17087393999099731,
            -0.021655971184372902,
            0.10999806970357895,
            -1.1862353086471558,
            -0.9806286096572876,
            -0.41326525807380676,
            -0.6033546924591064,
            -0.6616599559783936,
            0.2994692921638489,
            0.04982784762978554,
            -0.8758072853088379,
            -0.6887335181236267,
            0.5567067265510559,
            2.0837364196777344,
            0.9644466638565063,
            -0.5888071060180664,
            0.6406182050704956,
            0.14626000821590424,
            0.5982763171195984,
            1.2182543277740479,
            0.43630725145339966,
            1.0680073499679565,
            0.7152611613273621,
            -1.0420770645141602,
            0.34049728512763977,
            1.0447925329208374,
            -0.376801073551178,
            -0.3048691153526306,
            -0.676915168762207,
            -0.557186484336853,
            0.4785471260547638,
            -0.7505164742469788,
            -0.783880889415741,
            -0.3508770167827606,
            -0.38313746452331543,
            0.657192587852478,
            -0.6133157014846802,
            -0.6617743968963623,
            -2.5165560245513916,
            -0.8011430501937866,
            -0.5847498178482056,
            0.7642029523849487,
            -0.24004802107810974,
            -0.050780653953552246,
            -0.0015818028477951884,
            0.2104494720697403,
            -0.15550149977207184,
            0.16869786381721497,
            -0.22121217846870422,
            -0.08010265976190567,
            0.1060994416475296,
            0.4156589210033417,
            0.35367706418037415,
            -0.376471608877182,
            0.08705583214759827,
            0.2705156207084656,
            0.22630615532398224,
            0.2992028295993805,
            0.19743621349334717,
            0.11913014948368073,
            -0.33129703998565674,
            -0.3346725106239319,
            0.11709947139024734,
            0.363763689994812,
            0.3297838866710663,
            0.3460763394832611,
            -0.20768772065639496,
            0.04852595180273056,
            -0.1362440437078476,
            0.06993522495031357,
            0.18151235580444336,
            0.2849787473678589,
            -3.769693374633789,
            -3.8569753170013428,
            -3.267788887023926,
            1.6802058219909668,
            -0.3541867136955261,
            2.8944754600524902,
            -4.264588832855225,
            -4.386765480041504,
            -2.9817752838134766,
            -1.882613182067871,
            1.7857098579406738,
            1.8291738033294678,
            1.4659490585327148,
            -3.1955904960632324,
            4.066969871520996,
            2.200439691543579,
            3.737454414367676,
            4.0533599853515625,
            -4.147098064422607,
            0.712570071220398,
            2.8316121101379395,
            4.074099540710449,
            3.240999221801758,
            2.321817636489868,
            0.7924431562423706,
            1.0239211320877075,
            2.238558292388916,
            4.142850875854492,
            3.504911422729492,
            3.137474775314331,
            3.3543198108673096,
            3.6453025341033936,
            -2.5295636653900146,
            -0.13158093392848969,
            3.8815550804138184,
            1.9363963603973389,
            3.040278196334839,
            -0.6430205702781677,
            3.0929861068725586,
            3.6814815998077393,
            3.400844097137451,
            -3.9167821407318115,
            2.413372039794922,
            1.7598928213119507,
            -1.3527177572250366,
            -1.2776237726211548,
            -0.49731242656707764,
            -2.258837938308716,
            -2.5621087551116943,
            -2.5777320861816406,
            3.0415172576904297,
            -1.0917681455612183,
            -0.927707314491272,
            3.8267579078674316,
            -1.6032824516296387,
            -3.534842014312744,
            -1.86147940158844,
            0.6406578421592712,
            1.4829696416854858,
            2.978492498397827,
            1.3114686012268066,
            0.14212363958358765,
            -0.6902607679367065,
            -0.957445502281189,
            1.038822054862976,
            0.849367082118988,
            0.5886131525039673,
            -0.1414455771446228,
            0.6391743421554565,
            0.05622078850865364,
            0.6513099670410156,
            -0.22301140427589417,
            -0.18586492538452148,
            0.3058041036128998,
            -1.0053374767303467,
            -1.4531183242797852,
            -0.35517826676368713,
            -0.7930667996406555,
            0.7415981292724609,
            -0.8670737147331238,
            0.37561994791030884,
            -1.304976463317871,
            -1.412726640701294,
            0.9777482151985168,
            -0.8489704132080078,
            -0.6959187984466553,
            0.004463735967874527,
            -0.24926020205020905,
            -0.11081262677907944,
            0.6835947632789612,
            -3.4878931045532227,
            -3.8611531257629395,
            -2.4307897090911865,
            4.391200542449951,
            -1.8417747020721436,
            3.3967649936676025,
            -4.262890815734863,
            -4.3778276443481445,
            0.5414695739746094,
            -0.5196701884269714,
            2.9733338356018066,
            -0.22447645664215088,
            1.1461968421936035,
            0.5520601868629456,
            4.212741374969482,
            -0.13267426192760468,
            3.162702798843384,
            4.157779216766357,
            -4.138387680053711,
            -2.013627529144287,
            3.595970630645752,
            3.9440128803253174,
            1.8071105480194092,
            2.8708062171936035,
            2.1821017265319824,
            0.03700105845928192,
            1.251526951789856,
            4.452346324920654,
            1.7158966064453125,
            2.246514081954956,
            2.125699520111084,
            3.212653875350952,
            -1.5118906497955322,
            -1.1126118898391724,
            3.4245989322662354,
            3.040008306503296,
            2.461317539215088,
            2.389676332473755,
            3.0525965690612793,
            3.413339614868164,
            3.3170790672302246,
            -3.3933701515197754,
            0.5463460087776184,
            3.119920015335083,
            -1.751975417137146,
            0.5103814005851746,
            -2.1281979084014893,
            -1.9341635704040527,
            -1.823066234588623,
            -3.012901544570923,
            2.0346007347106934,
            -0.3909902274608612,
            -1.3919154405593872,
            3.2128705978393555,
            -3.283977508544922,
            -2.6568081378936768,
            -2.3316450119018555,
            -2.1861720085144043,
            0.07794313132762909,
            2.491091251373291,
            0.16286224126815796,
            0.5432078838348389,
            -1.7683051824569702,
            0.06007847562432289,
            0.0035064767580479383,
            -0.6276022791862488,
            0.03323766961693764,
            -0.1590658277273178,
            -0.3927542567253113,
            0.9211854338645935,
            0.42214131355285645,
            -0.8339439034461975,
            -0.809692919254303,
            -0.4319736063480377,
            0.05534474179148674,
            0.01573565974831581,
            0.13341476023197174,
            -0.07084006071090698,
            0.18037088215351105,
            0.49990546703338623,
            0.479748398065567,
            0.01094634085893631,
            -0.043928392231464386,
            0.6821533441543579,
            0.9343712329864502,
            0.5788723230361938,
            -0.09098765254020691,
            -0.16999982297420502,
            0.2169763743877411,
            0.7043448686599731,
            0.4667247235774994,
            0.8272151947021484,
            0.23577368259429932,
            -0.6410248279571533,
            0.6262441277503967,
            0.17049255967140198,
            0.5540522336959839,
            0.6286374926567078,
            0.21292339265346527,
            0.7776001691818237,
            0.557542622089386,
            -0.8081523180007935,
            0.3378766179084778,
            0.34183698892593384,
            -0.5129746794700623,
            -0.35829776525497437,
            -0.6406737565994263,
            -0.5673455595970154,
            0.4344771206378937,
            -0.45944708585739136,
            -0.3744667172431946,
            -0.3834710419178009,
            -0.33951395750045776,
            0.5951822996139526,
            -0.2046940177679062,
            -0.8631024360656738,
            -0.6973643898963928,
            -0.7227627635002136,
            -0.6560695767402649,
            0.4496806859970093,
            -0.33893293142318726,
            0.4351615905761719,
            -0.44710519909858704,
            0.3267635703086853,
            0.3211257755756378,
            0.36120113730430603,
            0.24473801255226135,
            0.22691583633422852,
            0.42494335770606995,
            0.5835465788841248,
            0.4994710385799408,
            -0.5629162788391113,
            0.42532697319984436,
            0.4605956971645355,
            0.32838088274002075,
            0.4018594026565552,
            0.10558101534843445,
            -0.21529634296894073,
            -0.25923803448677063,
            -0.4207315742969513,
            0.41879820823669434,
            0.412412166595459,
            0.32932013273239136,
            0.5742471218109131,
            -0.08490893244743347,
            -0.36031612753868103,
            -0.6707722544670105,
            -0.15517674386501312,
            0.3597016930580139,
            0.5534354448318481,
            0.3272389769554138,
            0.15986046195030212,
            0.09497987478971481,
            -0.2724665701389313,
            0.18112683296203613,
            0.031708378344774246,
            0.3334278166294098,
            0.22726164758205414,
            -0.16894619166851044,
            0.17586778104305267,
            0.15117377042770386,
            -0.10134633630514145,
            0.010733104310929775,
            0.04638134315609932,
            -0.39881789684295654,
            -0.36798015236854553,
            -0.3091593384742737,
            -0.31004735827445984,
            0.27510079741477966,
            -0.18903040885925293,
            -0.08602310717105865,
            -0.3901320993900299,
            -0.32049253582954407,
            0.16408096253871918,
            -0.06557946652173996,
            -0.33158761262893677,
            -0.11993525922298431,
            -0.31053003668785095,
            -0.5113891363143921,
            0.10213831812143326,
            1.749941349029541,
            0.7630525827407837,
            -0.22260010242462158,
            -0.9274529218673706,
            1.2816410064697266,
            0.8253822326660156,
            1.9384727478027344,
            0.286789208650589,
            0.01693788170814514,
            0.4702599048614502,
            0.717678964138031,
            -0.43320634961128235,
            1.3548893928527832,
            0.637311577796936,
            -2.2083933353424072,
            -1.867282748222351,
            -2.20693302154541,
            -1.3804877996444702,
            1.240382432937622,
            -0.6903707385063171,
            0.9753756523132324,
            -2.4473671913146973,
            -1.0677210092544556,
            0.5735260248184204,
            -1.780200719833374,
            -1.279062271118164,
            -0.5091531872749329,
            -1.4500060081481934,
            -0.21624340116977692,
            0.7293012738227844,
            0.8377806544303894,
            3.7224981784820557,
            1.341944932937622,
            -0.7159814834594727,
            2.1611170768737793,
            0.5856934189796448,
            1.156881332397461,
            1.5769027471542358,
            0.7597187757492065,
            2.8588647842407227,
            2.303718328475952,
            -2.695307493209839,
            1.0295517444610596,
            3.035491466522217,
            -0.3896239101886749,
            -0.07847856730222702,
            -1.1352511644363403,
            -1.0941492319107056,
            -0.3386175334453583,
            -2.5664446353912354,
            -0.9011489748954773,
            -0.3220461905002594,
            -0.22288411855697632,
            2.4709489345550537,
            -1.61686110496521,
            -1.4056148529052734,
            -3.7431082725524902,
            -1.7226498126983643,
            -0.5763644576072693,
            2.3128232955932617,
            -0.11855367571115494,
            -0.7347539663314819,
            0.0762510672211647,
            0.15242938697338104,
            -0.8771432042121887,
            -0.41166549921035767,
            -0.21156418323516846,
            -1.6897399425506592,
            -0.43692201375961304,
            -0.46529650688171387,
            -0.42621102929115295,
            0.49110254645347595,
            -0.6788550019264221,
            -0.44304394721984863,
            0.08045154809951782,
            0.07750964164733887,
            0.09674808382987976,
            0.15862393379211426,
            -0.0315583236515522,
            0.36645209789276123,
            0.2117229849100113,
            0.04952702298760414,
            0.08727534115314484,
            -0.285976380109787,
            0.4563513696193695,
            1.0118340253829956,
            0.5469787120819092,
            0.17534805834293365,
            0.13638973236083984,
            -0.44570693373680115,
            1.366384744644165,
            0.7313089966773987,
            -0.09935677796602249,
            -0.9274647235870361,
            1.2173961400985718,
            0.3844307065010071,
            1.2928974628448486,
            0.23374255001544952,
            0.07954859733581543,
            1.4972840547561646,
            1.2966722249984741,
            -1.4841150045394897,
            0.1825615018606186,
            0.617641270160675,
            -1.2915503978729248,
            -1.3651771545410156,
            -1.1524138450622559,
            -1.2495054006576538,
            1.2646675109863281,
            -1.4152554273605347,
            0.09665156900882721,
            -1.397094964981079,
            -1.315143346786499,
            1.3742506504058838,
            -0.3383375108242035,
            -1.1377168893814087,
            -0.3181578516960144,
            -1.3786652088165283,
            -0.9626514911651611,
            1.30484139919281,
            0.17602430284023285,
            1.370046615600586,
            0.0021049864590168,
            -0.2592608332633972,
            0.34923064708709717,
            -0.3549835681915283,
            0.24330826103687286,
            0.6308160424232483,
            0.07755326479673386,
            0.9867655634880066,
            0.5817782878875732,
            -0.7556513547897339,
            -0.19009451568126678,
            0.548808217048645,
            -0.10131045430898666,
            -0.027530860155820847,
            -0.19588428735733032,
            0.019065503031015396,
            0.05373712256550789,
            -0.49907252192497253,
            -0.33003512024879456,
            -0.03893439471721649,
            -0.021257471293210983,
            0.42985808849334717,
            -0.2790472209453583,
            0.5490123629570007,
            -0.7608783841133118,
            -0.39886075258255005,
            0.05489997938275337,
            0.2240944355726242,
            0.3720214366912842,
            0.8402634263038635,
            0.9435730576515198,
            -0.5180605053901672,
            0.4840010106563568,
            0.05640236288309097,
            0.3692823648452759,
            0.7190251350402832,
            0.19426532089710236,
            0.5701422691345215,
            0.2793269157409668,
            -0.40223273634910583,
            0.3957034647464752,
            0.44654005765914917,
            -0.353801429271698,
            -0.2756253182888031,
            -0.4209882616996765,
            -0.5120821595191956,
            0.3399490714073181,
            -0.3727128803730011,
            -0.8775627613067627,
            -0.28341835737228394,
            -0.33597078919410706,
            0.2782536745071411,
            -0.31136536598205566,
            -0.2988525331020355,
            -0.7672047019004822,
            -0.6018473505973816,
            -0.33082252740859985,
            0.5625215768814087,
            1.044687032699585,
            0.7974048852920532,
            0.14566028118133545,
            -0.8773620128631592,
            0.9015414714813232,
            0.17109361290931702,
            1.0760517120361328,
            0.45222002267837524,
            -0.22126619517803192,
            0.6452364921569824,
            0.9186469912528992,
            -0.49195075035095215,
            0.22325576841831207,
            -0.02856655791401863,
            -1.0162320137023926,
            -0.9854611158370972,
            -1.0319496393203735,
            -0.9889459609985352,
            0.9754253625869751,
            -1.0913012027740479,
            -0.11329656094312668,
            -0.9218547344207764,
            -0.8978198766708374,
            0.9471699595451355,
            -0.3346584737300873,
            -0.9282556772232056,
            -0.17007790505886078,
            -1.072532296180725,
            -0.8818010091781616,
            1.1698122024536133,
            0.011168692260980606,
            -0.0635819211602211,
            -0.0476340726017952,
            0.037547070533037186,
            -0.04805251583456993,
            -0.00727748591452837,
            0.037514496594667435,
            0.021843617781996727,
            0.012647436000406742,
            -0.07016456872224808,
            -0.07185760140419006,
            0.0371728390455246,
            0.06142173707485199,
            0.015174328349530697,
            0.006016833707690239,
            0.006852627731859684,
            -0.02778133936226368,
            -0.008074582554399967,
            0.0523645356297493,
            0.015187408775091171,
            -0.010951785370707512,
            0.029130902141332626,
            0.054064515978097916,
            -0.00019562152738217264,
            0.0754372626543045,
            -0.03104066103696823,
            -0.005560462363064289,
            -0.024974917992949486,
            -0.003979517146945,
            0.018154213204979897
        ]
    },
    "hiddenLayers": [
        {
            "inputMatrix": {
                "rows": 20,
                "columns": 30,
                "weights": [
                    0.389160692691803,
                    0.2692809998989105,
                    -0.09970521181821823,
                    -0.09961444139480591,
                    0.4363725781440735,
                    0.0007255821255967021,
                    0.2764449715614319,
                    0.11467815935611725,
                    -0.023263778537511826,
                    0.17520111799240112,
                    0.16479890048503876,
                    -0.28140923380851746,
                    0.04492394998669624,
                    0.16909533739089966,
                    -0.11623384058475494,
                    -0.28180596232414246,
                    0.0862184539437294,
                    -0.21604254841804504,
                    0.2788827121257782,
                    -0.11456041038036346,
                    0.16551440954208374,
                    -0.3558688461780548,
                    -0.4138169586658478,
                    0.025899745523929596,
                    -0.0657738745212555,
                    -0.13728252053260803,
                    -0.259512335062027,
                    -0.15696963667869568,
                    -0.010493485257029533,
                    0.24621716141700745,
                    -0.015422161668539047,
                    0.17080983519554138,
                    0.014777685515582561,
                    -0.011236882768571377,
                    0.05240120738744736,
                    -0.009095342829823494,
                    0.058703552931547165,
                    -0.015853917226195335,
                    0.04203546419739723,
                    0.28851473331451416,
                    0.08057527989149094,
                    -0.2991478741168976,
                    0.007124571595340967,
                    0.10330261290073395,
                    -0.001306301448494196,
                    -0.03363211825489998,
                    -0.028827117756009102,
                    -0.033257730305194855,
                    -0.03181011974811554,
                    -0.2008861005306244,
                    0.09179525077342987,
                    -0.015381867066025734,
                    -0.003770272945985198,
                    0.20525453984737396,
                    -0.08891747891902924,
                    -0.04037352278828621,
                    -0.01855265162885189,
                    -0.11232937127351761,
                    0.030131220817565918,
                    0.01850956305861473,
                    -0.11141174286603928,
                    -0.056644365191459656,
                    -0.03462298959493637,
                    0.013928246684372425,
                    -0.053278591483831406,
                    0.01487674843519926,
                    -0.09850487858057022,
                    -0.09452201426029205,
                    -0.007245851214975119,
                    0.23091115057468414,
                    0.28769856691360474,
                    -0.274512380361557,
                    0.10953842848539352,
                    0.05913164094090462,
                    0.045059531927108765,
                    0.07484090328216553,
                    0.004588780924677849,
                    -0.004973496310412884,
                    -0.05443233251571655,
                    -0.17359131574630737,
                    0.07684183865785599,
                    0.11553148180246353,
                    0.04481615498661995,
                    0.24529767036437988,
                    -0.03962444141507149,
                    -0.04341501370072365,
                    -0.10933978110551834,
                    -0.01496361568570137,
                    0.060862988233566284,
                    0.243333637714386,
                    0.04870997741818428,
                    0.16169431805610657,
                    -0.013550551608204842,
                    0.05877232551574707,
                    0.09367836266756058,
                    -0.04311252012848854,
                    0.05735910311341286,
                    0.1021779328584671,
                    0.06909024715423584,
                    0.3655364513397217,
                    0.11100760847330093,
                    -0.3940083384513855,
                    -0.04049866646528244,
                    0.24055150151252747,
                    0.0764075219631195,
                    0.10252128541469574,
                    0.014831293374300003,
                    -0.032067131251096725,
                    0.03703271225094795,
                    -0.21292230486869812,
                    0.10533487796783447,
                    0.07125896960496902,
                    0.06616370379924774,
                    0.10829733312129974,
                    0.026209019124507904,
                    -0.05796908214688301,
                    -0.0503385029733181,
                    -0.030722593888640404,
                    -0.05192254111170769,
                    0.07006031274795532,
                    -0.017811857163906097,
                    0.07572166621685028,
                    -0.03281543403863907,
                    0.07511430978775024,
                    -0.0713391900062561,
                    -0.016149936243891716,
                    -0.056550174951553345,
                    0.07255192846059799,
                    0.07483652234077454,
                    0.2215465009212494,
                    0.19220557808876038,
                    -0.20982404053211212,
                    0.04695863276720047,
                    0.06403066962957382,
                    0.05101020634174347,
                    0.024921007454395294,
                    0.10698921233415604,
                    0.025549838319420815,
                    -0.03520071879029274,
                    -0.22865985333919525,
                    -0.023322096094489098,
                    0.09493403136730194,
                    -0.028254682198166847,
                    0.12210524827241898,
                    -0.018665244802832603,
                    -0.05579717457294464,
                    -0.06792604178190231,
                    -0.0067624845542013645,
                    -0.03155047073960304,
                    0.098805271089077,
                    0.033362749963998795,
                    0.09076156467199326,
                    -0.05769587680697441,
                    0.09877405315637589,
                    0.0078576123341918,
                    0.06593624502420425,
                    0.041116926819086075,
                    0.116273432970047,
                    0.10611903667449951,
                    0.4576377272605896,
                    0.1453843116760254,
                    -0.4463058114051819,
                    0.05659986287355423,
                    0.17313683032989502,
                    0.08831650763750076,
                    0.17244285345077515,
                    0.09437324106693268,
                    0.013711905106902122,
                    -0.07973554730415344,
                    -0.20118191838264465,
                    0.0433877594769001,
                    0.02320244163274765,
                    0.12009257823228836,
                    0.278203547000885,
                    0.0005406588315963745,
                    -0.024866901338100433,
                    -0.19190293550491333,
                    -0.03681420162320137,
                    -0.0058597964234650135,
                    0.26846373081207275,
                    -0.002589458366855979,
                    0.07153996080160141,
                    -0.03697464242577553,
                    -0.0370216891169548,
                    0.03792974352836609,
                    -0.07071876525878906,
                    -0.03608338534832001,
                    -0.0252677109092474,
                    0.09503324329853058,
                    0.24496933817863464,
                    0.1407346874475479,
                    -0.27856728434562683,
                    0.041063979268074036,
                    0.1135023906826973,
                    0.061080094426870346,
                    -0.04823360964655876,
                    0.08336083590984344,
                    0.009964779019355774,
                    -0.08919142186641693,
                    -0.2317247837781906,
                    0.03573549911379814,
                    0.05246615409851074,
                    0.043409042060375214,
                    0.08213858306407928,
                    0.03964615985751152,
                    -0.10280638188123703,
                    -0.09319289773702621,
                    0.03132651001214981,
                    -0.03959279507398605,
                    0.04639372602105141,
                    -0.05330776050686836,
                    0.2775249779224396,
                    -0.02085549384355545,
                    0.004851094912737608,
                    -0.03482350334525108,
                    0.030598361045122147,
                    0.05831540375947952,
                    0.00043317119707353413,
                    0.01702813431620598,
                    0.22088542580604553,
                    0.30710074305534363,
                    -0.3134014308452606,
                    -0.01619681343436241,
                    0.35271766781806946,
                    0.05256208777427673,
                    -0.0320376493036747,
                    -0.00007218809332698584,
                    0.10150115191936493,
                    0.01594458520412445,
                    -0.23505829274654388,
                    0.08813689649105072,
                    0.008657985366880894,
                    -0.002930795308202505,
                    0.2593238949775696,
                    -0.04354583099484444,
                    -0.07389484345912933,
                    -0.21586817502975464,
                    -0.09819068014621735,
                    -0.022522039711475372,
                    0.2664276361465454,
                    0.032191697508096695,
                    0.03491244092583656,
                    -0.06015908345580101,
                    -0.02418925240635872,
                    0.005252240225672722,
                    0.026423519477248192,
                    -0.07780670374631882,
                    0.08403566479682922,
                    0.003392775310203433,
                    0.2400999814271927,
                    0.11843264847993851,
                    -0.232188418507576,
                    0.02871435135602951,
                    0.007644071709364653,
                    0.07481434941291809,
                    -0.0013294427189975977,
                    0.012558606453239918,
                    0.0020655388943850994,
                    -0.03676693141460419,
                    -0.09493236988782883,
                    -0.006241604685783386,
                    0.006787595804780722,
                    0.019883302971720695,
                    0.16628742218017578,
                    0.017631493508815765,
                    0.046984124928712845,
                    0.057164549827575684,
                    -0.0448354072868824,
                    0.015481450594961643,
                    0.10010158270597458,
                    0.044150084257125854,
                    0.042960040271282196,
                    0.010048717260360718,
                    0.031163493171334267,
                    0.08846577256917953,
                    0.009214418940246105,
                    -0.015195914544165134,
                    0.05350412800908089,
                    0.03749745711684227,
                    0.3076957166194916,
                    0.19078963994979858,
                    -0.33760473132133484,
                    0.11095786094665527,
                    0.24210801720619202,
                    -0.01012420654296875,
                    0.01036010030657053,
                    -0.025753624737262726,
                    -0.042851321399211884,
                    -0.08930405974388123,
                    -0.18027560412883759,
                    0.01623351499438286,
                    0.005692974664270878,
                    0.014323876239359379,
                    0.2817562520503998,
                    -0.029863577336072922,
                    0.0007656421512365341,
                    -0.10019051283597946,
                    0.014947008341550827,
                    -0.010920011438429356,
                    0.09624353796243668,
                    0.13135793805122375,
                    0.12095200270414352,
                    -0.042068589478731155,
                    -0.09763572365045547,
                    0.27624401450157166,
                    0.057520754635334015,
                    0.19701914489269257,
                    0.0735168382525444,
                    0.17757292091846466,
                    0.22606432437896729,
                    0.23930585384368896,
                    -0.2765462398529053,
                    0.04905128851532936,
                    0.1741880178451538,
                    -0.012299386784434319,
                    -0.006456071510910988,
                    -0.03524862974882126,
                    -0.11949685961008072,
                    0.09110958129167557,
                    -0.15222889184951782,
                    -0.02704637497663498,
                    -0.0683116763830185,
                    -0.07358985394239426,
                    0.17940345406532288,
                    -0.1150311604142189,
                    -0.156605064868927,
                    -0.16552534699440002,
                    -0.165713369846344,
                    -0.07410939037799835,
                    0.16447626054286957,
                    -0.011833934113383293,
                    0.1664782166481018,
                    -0.033490948379039764,
                    0.08637140691280365,
                    -0.007200965657830238,
                    -0.02964211255311966,
                    -0.015629757195711136,
                    0.04123394191265106,
                    0.07147715240716934,
                    0.3455936014652252,
                    0.11974266171455383,
                    -0.31990939378738403,
                    -0.03729844093322754,
                    0.22373005747795105,
                    -0.05610379949212074,
                    0.07021019607782364,
                    0.019883330911397934,
                    -0.016928546130657196,
                    -0.0951790064573288,
                    -0.1128004938364029,
                    0.010383466258645058,
                    -0.0329711027443409,
                    -0.005798418074846268,
                    0.09712620824575424,
                    0.008361415937542915,
                    -0.07449988275766373,
                    -0.1725061982870102,
                    -0.055780187249183655,
                    -0.00019162302487529814,
                    0.04387370124459267,
                    -0.003271878696978092,
                    0.05527295544743538,
                    -0.02808920107781887,
                    0.08474774658679962,
                    -0.059400901198387146,
                    0.06307914853096008,
                    0.05270474776625633,
                    -0.002970870351418853,
                    0.0027251236606389284,
                    0.25829848647117615,
                    0.17445774376392365,
                    -0.27952685952186584,
                    0.10699521005153656,
                    0.23322035372257233,
                    0.07465317845344543,
                    -0.016319839283823967,
                    0.05055857449769974,
                    0.0476108193397522,
                    -0.09555721282958984,
                    -0.2750740349292755,
                    0.04939470440149307,
                    0.005248205736279488,
                    0.055221077054739,
                    0.19843930006027222,
                    -0.024754157289862633,
                    -0.05047278851270676,
                    -0.019865384325385094,
                    -0.08215129375457764,
                    0.07556938380002975,
                    0.2104225903749466,
                    -0.011321957223117352,
                    0.002913897857069969,
                    -0.07251660525798798,
                    0.11114630848169327,
                    0.029754159972071648,
                    0.012839259579777718,
                    -0.09334243834018707,
                    -0.08580415695905685,
                    -0.0019130771979689598,
                    0.17522047460079193,
                    0.2850264310836792,
                    -0.25725361704826355,
                    0.03993462398648262,
                    0.06230517849326134,
                    0.043755222111940384,
                    0.012176604941487312,
                    0.08094043284654617,
                    0.07240085303783417,
                    -0.04785025492310524,
                    -0.23144616186618805,
                    0.13787131011486053,
                    0.047572121024131775,
                    0.09059447795152664,
                    0.25874024629592896,
                    -0.03142398223280907,
                    0.025786884129047394,
                    -0.041386377066373825,
                    0.034784138202667236,
                    0.04996195062994957,
                    0.24725674092769623,
                    -0.10118849575519562,
                    -0.05083009973168373,
                    -0.11552178859710693,
                    0.09015417844057083,
                    -0.0010420214384794235,
                    -0.013108087703585625,
                    -0.029176844283938408,
                    -0.11658049374818802,
                    -0.0268718134611845,
                    0.2825607657432556,
                    0.2794565260410309,
                    -0.2644352614879608,
                    -0.041376400738954544,
                    0.15906524658203125,
                    0.009398371912539005,
                    0.03185928240418434,
                    0.043492890894412994,
                    0.06307864934206009,
                    -0.057078685611486435,
                    -0.2440580576658249,
                    0.17887835204601288,
                    0.02749665267765522,
                    0.10988830775022507,
                    0.25104811787605286,
                    0.032634176313877106,
                    -0.07024064660072327,
                    -0.03496937453746796,
                    0.02408730424940586,
                    0.04115663096308708,
                    0.18190039694309235,
                    0.000845117901917547,
                    0.16407600045204163,
                    -0.022692149505019188,
                    0.06289342790842056,
                    -0.0345444530248642,
                    -0.014631049707531929,
                    -0.021183118224143982,
                    0.035867512226104736,
                    0.03846512734889984,
                    0.4080502986907959,
                    0.24523667991161346,
                    -0.2757401168346405,
                    -0.0003140128974337131,
                    0.25081199407577515,
                    0.07403407245874405,
                    0.08140083402395248,
                    0.06532071530818939,
                    -0.013133987784385681,
                    0.04786881431937218,
                    -0.194061279296875,
                    0.02503586933016777,
                    0.03709091991186142,
                    0.05552556365728378,
                    0.1679035723209381,
                    -0.0166066475212574,
                    0.006481043994426727,
                    -0.08400888741016388,
                    -0.0023835054598748684,
                    -0.03639008477330208,
                    0.04042630270123482,
                    -0.004035991616547108,
                    0.06293250620365143,
                    -0.04479151591658592,
                    -0.002692438429221511,
                    0.09514967352151871,
                    0.0072446237318217754,
                    0.089531809091568,
                    0.12293606251478195,
                    0.10205297917127609,
                    0.3398544192314148,
                    0.13298381865024567,
                    -0.5019329786300659,
                    0.09193700551986694,
                    0.1711035668849945,
                    0.04849974066019058,
                    0.07060368359088898,
                    0.005245504435151815,
                    0.05101769417524338,
                    -0.023733818903565407,
                    -0.13033875823020935,
                    0.02394021302461624,
                    0.050934772938489914,
                    0.029712345451116562,
                    0.2342984527349472,
                    0.011041216552257538,
                    -0.09524434059858322,
                    -0.06622430682182312,
                    -0.007321814075112343,
                    -0.06334669142961502,
                    0.13341279327869415,
                    0.0003896424896083772,
                    -0.03161441907286644,
                    -0.00037324821460060775,
                    0.03560333326458931,
                    0.03461972251534462,
                    -0.04045712947845459,
                    -0.0052975863218307495,
                    -0.04752093926072121,
                    -0.041947245597839355,
                    0.27742964029312134,
                    0.14224374294281006,
                    -0.23369866609573364,
                    -0.07980609685182571,
                    0.14379802346229553,
                    0.08155109733343124,
                    -0.007602134253829718,
                    0.024887237697839737,
                    -0.03160882368683815,
                    -0.029610084369778633,
                    -0.23582254350185394,
                    -0.029379840940237045,
                    -0.04676852002739906,
                    0.054261595010757446,
                    0.1318233460187912,
                    -0.006306933239102364,
                    0.016978753730654716,
                    0.01291423849761486,
                    -0.0039563365280628204,
                    -0.040307894349098206,
                    0.026902904734015465,
                    0.039915770292282104,
                    0.13345009088516235,
                    0.023876197636127472,
                    0.0946231335401535,
                    0.0666297972202301,
                    -0.01674317568540573,
                    0.08708463609218597,
                    0.13245385885238647,
                    0.0493072010576725,
                    0.3884381353855133,
                    0.15868104994297028,
                    -0.5183721780776978,
                    -0.0056405323557555676,
                    0.27881067991256714,
                    -0.021530047059059143,
                    0.05034444481134415,
                    0.04592093452811241,
                    -0.026407286524772644,
                    -0.03164700046181679,
                    -0.1838110238313675,
                    0.0992433950304985,
                    -0.015928052365779877,
                    0.11403632909059525,
                    0.18396475911140442,
                    -0.055075742304325104,
                    0.016570458188652992,
                    -0.05199595168232918,
                    -0.0338258370757103,
                    -0.0009257399360649288,
                    0.0521923303604126,
                    -0.07829535007476807,
                    -0.002332147676497698,
                    -0.18484695255756378,
                    0.1364387571811676,
                    -0.03245557099580765,
                    0.02624754048883915,
                    -0.014110095798969269,
                    -0.16254709661006927,
                    0.0089824004098773,
                    0.2962101697921753,
                    0.2945997416973114,
                    -0.19319267570972443,
                    0.01979733258485794,
                    0.05489422008395195,
                    0.16652695834636688,
                    0.06535574793815613,
                    0.043821871280670166,
                    0.09517963230609894,
                    -0.09046945720911026,
                    -0.2709542512893677,
                    0.14192065596580505,
                    0.0353015661239624,
                    0.18399660289287567,
                    0.295375794172287,
                    0.08475617319345474,
                    -0.01605083793401718,
                    0.006666159722954035,
                    0.011127185076475143,
                    0.12250755727291107,
                    0.2654477059841156
                ]
            },
            "inputHidden": {
                "rows": 20,
                "columns": 20,
                "weights": [
                    -0.21198147535324097,
                    0.11737345159053802,
                    -0.09634654968976974,
                    0.053109314292669296,
                    0.01338980533182621,
                    0.1699719876050949,
                    -0.004843185190111399,
                    0.10941455513238907,
                    -0.03969829902052879,
                    -0.09926513582468033,
                    0.1794092357158661,
                    -0.03808148205280304,
                    0.05777883902192116,
                    -0.07517989724874496,
                    -0.009882200509309769,
                    0.03651862218976021,
                    0.1120203509926796,
                    0.052828725427389145,
                    0.13462971150875092,
                    -0.13782541453838348,
                    -0.15268710255622864,
                    0.18303817510604858,
                    -0.18148832023143768,
                    0.14294397830963135,
                    0.14999885857105255,
                    0.11571017652750015,
                    0.08948059380054474,
                    0.03919240087270737,
                    -0.1531328558921814,
                    -0.17850004136562347,
                    0.19371038675308228,
                    -0.14253374934196472,
                    0.15917731821537018,
                    -0.1383562982082367,
                    0.06067965179681778,
                    0.14606405794620514,
                    0.07132183015346527,
                    0.014667641371488571,
                    0.14390963315963745,
                    -0.2668970227241516,
                    -0.10206667333841324,
                    0.24985282123088837,
                    -0.10605907440185547,
                    0.2129097878932953,
                    0.17347176373004913,
                    0.1982162594795227,
                    0.2972864806652069,
                    0.13286009430885315,
                    -0.3484175503253937,
                    -0.22220556437969208,
                    0.13352617621421814,
                    -0.15092311799526215,
                    0.22767353057861328,
                    -0.07852254062891006,
                    0.20083661377429962,
                    0.13279494643211365,
                    0.23852407932281494,
                    0.28447872400283813,
                    0.1418377161026001,
                    -0.08924271911382675,
                    -0.13582929968833923,
                    0.184358611702919,
                    -0.3902411460876465,
                    0.20688658952713013,
                    0.3862016201019287,
                    0.11521964520215988,
                    0.4933864176273346,
                    0.21971271932125092,
                    -0.31272825598716736,
                    -0.15460802614688873,
                    0.15388910472393036,
                    -0.22199217975139618,
                    0.23228728771209717,
                    -0.29610171914100647,
                    0.36454877257347107,
                    0.18023981153964996,
                    0.1016465425491333,
                    0.3225744366645813,
                    0.22465582191944122,
                    -0.4361821413040161,
                    -0.12766151130199432,
                    0.28138965368270874,
                    -0.23038901388645172,
                    0.3040975034236908,
                    0.3286628723144531,
                    0.19947874546051025,
                    0.44432735443115234,
                    0.06136283650994301,
                    -0.32241469621658325,
                    -0.34013351798057556,
                    0.189017653465271,
                    -0.28370919823646545,
                    0.25204697251319885,
                    -0.3034568428993225,
                    0.16111499071121216,
                    0.2680428624153137,
                    0.2758371829986572,
                    0.2274484634399414,
                    0.2991190552711487,
                    -0.17341406643390656,
                    -0.12959635257720947,
                    0.24975690245628357,
                    -0.508273184299469,
                    0.24012723565101624,
                    0.6187053918838501,
                    0.16741622984409332,
                    0.4767064154148102,
                    0.42581623792648315,
                    -0.5058436393737793,
                    -0.19814229011535645,
                    0.17378178238868713,
                    -0.2272339016199112,
                    0.5359272956848145,
                    -0.3092314600944519,
                    0.3901304304599762,
                    0.15791454911231995,
                    0.2505089342594147,
                    0.47022509574890137,
                    0.14621032774448395,
                    -0.45968097448349,
                    -0.18410854041576385,
                    0.2238215208053589,
                    -0.1469048708677292,
                    0.2931130528450012,
                    0.171019047498703,
                    0.2835448980331421,
                    0.36626097559928894,
                    -0.0021379755344241858,
                    -0.2617754340171814,
                    -0.3044854998588562,
                    0.3046720027923584,
                    -0.36119788885116577,
                    0.1204131543636322,
                    -0.17904578149318695,
                    0.1810227483510971,
                    0.3919861316680908,
                    0.3380405306816101,
                    0.236245796084404,
                    0.2669892907142639,
                    -0.1708521544933319,
                    -0.19658635556697845,
                    0.1404959261417389,
                    -0.056832898408174515,
                    0.14592543244361877,
                    0.07710729539394379,
                    0.19922395050525665,
                    0.27189353108406067,
                    0.057230569422245026,
                    -0.19614791870117188,
                    -0.2862935960292816,
                    0.17974939942359924,
                    -0.21899382770061493,
                    0.049319103360176086,
                    -0.0904281809926033,
                    0.2126058042049408,
                    0.20186910033226013,
                    0.1746615320444107,
                    0.11411276459693909,
                    0.20221427083015442,
                    -0.12450793385505676,
                    -0.1780584156513214,
                    0.21585297584533691,
                    -0.1308359056711197,
                    0.3303384780883789,
                    0.34649986028671265,
                    0.27180173993110657,
                    0.3114461600780487,
                    0.05495009571313858,
                    -0.26287955045700073,
                    -0.3938744366168976,
                    0.3401801884174347,
                    -0.3800586760044098,
                    0.21345767378807068,
                    -0.0808463990688324,
                    0.22824165225028992,
                    0.566571831703186,
                    0.47518396377563477,
                    0.22885239124298096,
                    0.37279385328292847,
                    -0.18670505285263062,
                    -0.1196795403957367,
                    0.28737109899520874,
                    -0.2767547369003296,
                    0.27126070857048035,
                    0.5908076763153076,
                    0.19828543066978455,
                    0.4794064462184906,
                    0.35678189992904663,
                    -0.4795781970024109,
                    -0.3174874186515808,
                    0.1374875158071518,
                    -0.21832126379013062,
                    0.3304777145385742,
                    -0.3131125271320343,
                    0.36450061202049255,
                    0.24629192054271698,
                    0.20643776655197144,
                    0.441224068403244,
                    0.17212022840976715,
                    -0.2884088456630707,
                    -0.23179011046886444,
                    0.07440467923879623,
                    -0.17085330188274384,
                    0.14656294882297516,
                    0.06440427154302597,
                    0.12972335517406464,
                    0.0339663103222847,
                    0.16853976249694824,
                    -0.02553647942841053,
                    -0.17805884778499603,
                    0.25552698969841003,
                    -0.11896288394927979,
                    0.12422049045562744,
                    -0.14014911651611328,
                    0.04248577356338501,
                    0.08184894919395447,
                    0.10798276960849762,
                    0.05775929614901543,
                    0.14210961759090424,
                    -0.16591876745224,
                    -0.05066435784101486,
                    0.14032481610774994,
                    -0.2372591495513916,
                    0.14019082486629486,
                    0.4038531482219696,
                    0.1542261391878128,
                    0.47342339158058167,
                    0.20005330443382263,
                    -0.2688569128513336,
                    -0.14830714464187622,
                    0.1434190720319748,
                    -0.09821273386478424,
                    0.19050057232379913,
                    -0.2703699767589569,
                    0.3073098063468933,
                    0.17118294537067413,
                    0.12866349518299103,
                    0.15796691179275513,
                    0.11821294575929642,
                    -0.3576180934906006,
                    -0.1274152249097824,
                    0.1370687037706375,
                    -0.12125266343355179,
                    0.1675436943769455,
                    0.11168418079614639,
                    0.1245032399892807,
                    0.3053705394268036,
                    0.11315388977527618,
                    -0.4015427529811859,
                    -0.22244873642921448,
                    0.09591745585203171,
                    -0.200137659907341,
                    0.1916123330593109,
                    -0.11803106963634491,
                    0.16122697293758392,
                    0.09886748343706131,
                    0.2542822062969208,
                    0.23871144652366638,
                    0.13590316474437714,
                    -0.25363343954086304,
                    -0.3084791600704193,
                    0.17771516740322113,
                    0.2119540274143219,
                    0.20901113748550415,
                    0.14822044968605042,
                    0.2800106108188629,
                    0.12979723513126373,
                    -0.14500106871128082,
                    -0.23762759566307068,
                    -0.3733695149421692,
                    0.3491346836090088,
                    -0.3185226619243622,
                    -0.1584768146276474,
                    0.07923145592212677,
                    0.054022349417209625,
                    0.23358002305030823,
                    0.3765592575073242,
                    0.04231717810034752,
                    0.2834632694721222,
                    -0.03596901521086693,
                    -0.21262571215629578,
                    0.1897311806678772,
                    -0.0023289595264941454,
                    0.3079591691493988,
                    0.010282358154654503,
                    0.20193637907505035,
                    0.2554067373275757,
                    0.031223135069012642,
                    -0.2707189917564392,
                    -0.3061409592628479,
                    0.2940642833709717,
                    -0.26387009024620056,
                    -0.005691005382686853,
                    -0.054752081632614136,
                    0.05786486715078354,
                    0.31998056173324585,
                    0.2936204671859741,
                    0.10504722595214844,
                    0.27829790115356445,
                    -0.009703559800982475,
                    -0.16063816845417023,
                    0.12135713547468185,
                    -0.17439189553260803,
                    0.14748427271842957,
                    0.4143572747707367,
                    0.15067443251609802,
                    0.4900926351547241,
                    0.1904299408197403,
                    -0.3264283239841461,
                    -0.1450919508934021,
                    0.1571158468723297,
                    -0.13474847376346588,
                    0.22194026410579681,
                    -0.1877262145280838,
                    0.26986876130104065,
                    0.18760980665683746,
                    0.18653233349323273,
                    0.29105493426322937,
                    0.2088148593902588,
                    -0.24269115924835205,
                    -0.18676258623600006,
                    0.23789379000663757,
                    -0.36016321182250977,
                    0.24349893629550934,
                    0.7027158737182617,
                    0.15531858801841736,
                    0.62640780210495,
                    0.45797377824783325,
                    -0.49519944190979004,
                    -0.18609718978405,
                    0.1878211498260498,
                    -0.2369101196527481,
                    0.4730067551136017,
                    -0.34477323293685913,
                    0.30054616928100586,
                    0.2338915765285492,
                    0.1387728750705719,
                    0.44651734828948975,
                    0.21392028033733368,
                    -0.395150363445282,
                    -0.21853499114513397,
                    0.3434660732746124,
                    -0.15605491399765015,
                    0.2968512177467346,
                    0.23893816769123077,
                    0.17152070999145508,
                    0.31264856457710266,
                    0.1594625562429428,
                    -0.28029316663742065,
                    -0.3770776689052582,
                    0.21684639155864716,
                    -0.2703033685684204,
                    0.14526356756687164,
                    -0.13631537556648254,
                    0.1202656477689743,
                    0.4663240313529968,
                    0.400674968957901,
                    0.20076356828212738,
                    0.22599968314170837,
                    -0.11094781011343002,
                    -0.188597172498703,
                    0.1297508329153061,
                    -0.39433562755584717,
                    0.10684695839881897,
                    0.739582359790802,
                    0.20411357283592224,
                    0.5080519914627075,
                    0.3678067922592163,
                    -0.44316697120666504,
                    -0.10489840060472488,
                    0.12899328768253326,
                    -0.134285569190979,
                    0.4605576992034912,
                    -0.27229440212249756,
                    0.38158348202705383,
                    0.12823539972305298,
                    0.16268692910671234,
                    0.4353718161582947,
                    0.14078576862812042,
                    -0.3374042809009552,
                    -0.17063702642917633,
                    0.13886623084545135,
                    -0.24776563048362732,
                    0.2410210222005844,
                    0.15172070264816284,
                    0.149087056517601,
                    0.19949254393577576,
                    0.15470512211322784,
                    -0.2892616093158722,
                    -0.267985075712204,
                    0.2707507312297821,
                    -0.22332535684108734,
                    0.15950435400009155,
                    -0.06967703998088837,
                    0.14382995665073395,
                    0.14170919358730316,
                    0.16460371017456055,
                    0.25538554787635803,
                    0.22159864008426666,
                    -0.2186688631772995
                ]
            },
            "inputBias": {
                "rows": 20,
                "columns": 1,
                "weights": [
                    0.13279986381530762,
                    -0.014791344292461872,
                    0.05435465648770332,
                    0.0461275689303875,
                    0.14448760449886322,
                    0.09482202678918839,
                    0.08684634417295456,
                    0.26722413301467896,
                    0.2794957756996155,
                    0.16012051701545715,
                    -0.025487421080470085,
                    0.06851354986429214,
                    0.11589974910020828,
                    0.12788952887058258,
                    0.18993006646633148,
                    0.18688130378723145,
                    0.10794394463300705,
                    0.18647046387195587,
                    0.0657559186220169,
                    0.004448637366294861
                ]
            },
            "forgetMatrix": {
                "rows": 20,
                "columns": 30,
                "weights": [
                    0.02557469718158245,
                    0.15289005637168884,
                    0.047053735703229904,
                    -0.08524522185325623,
                    -0.10445509105920792,
                    -0.0355275459587574,
                    0.07398520410060883,
                    0.011300058104097843,
                    -0.1629168689250946,
                    0.2629925012588501,
                    0.052339617162942886,
                    0.06904267519712448,
                    0.12778791785240173,
                    0.05167105793952942,
                    -0.160471111536026,
                    0.00911663193255663,
                    -0.04457981511950493,
                    -0.1568160057067871,
                    0.021306153386831284,
                    0.04766850546002388,
                    0.002412449801340699,
                    -0.13093720376491547,
                    0.11457990854978561,
                    -0.0442475862801075,
                    0.15124335885047913,
                    0.01658439449965954,
                    -0.3270675837993622,
                    -0.22179865837097168,
                    0.03352168947458267,
                    0.10858786851167679,
                    0.12541307508945465,
                    0.2657703459262848,
                    0.09937434643507004,
                    -0.18421947956085205,
                    0.1242055669426918,
                    -0.15031571686267853,
                    0.24626022577285767,
                    0.1702195554971695,
                    -0.15744008123874664,
                    -0.10923308879137039,
                    -0.057150278240442276,
                    0.17827343940734863,
                    0.107343390583992,
                    0.03312498331069946,
                    -0.24910369515419006,
                    -0.05368735268712044,
                    -0.15129753947257996,
                    -0.19766533374786377,
                    0.11744695156812668,
                    0.16190224885940552,
                    -0.0881851390004158,
                    -0.1315455287694931,
                    -0.1160663589835167,
                    -0.1377163678407669,
                    -0.12173743546009064,
                    -0.06765174865722656,
                    -0.3356655240058899,
                    -0.2708416283130646,
                    -0.1659126877784729,
                    0.08996008336544037,
                    0.012365639209747314,
                    -0.31568318605422974,
                    -0.25180312991142273,
                    0.04864025115966797,
                    -0.01981460303068161,
                    0.1638156771659851,
                    0.00689332652837038,
                    -0.24840858578681946,
                    0.21894598007202148,
                    -0.12941502034664154,
                    -0.05669119209051132,
                    -0.050376858562231064,
                    -0.2100134789943695,
                    0.022809743881225586,
                    -0.02364213950932026,
                    -0.012327554635703564,
                    0.19540362060070038,
                    -0.003542905207723379,
                    -0.0716891959309578,
                    0.0688181221485138,
                    0.20514211058616638,
                    -0.039255235344171524,
                    0.04882567375898361,
                    0.08135538548231125,
                    -0.0016398717416450381,
                    0.029666360467672348,
                    0.14967484772205353,
                    0.2542710304260254,
                    0.19684046506881714,
                    -0.14133287966251373,
                    0.2590349316596985,
                    0.3064322769641876,
                    0.11347340047359467,
                    -0.25802284479141235,
                    0.13623715937137604,
                    -0.04845060035586357,
                    0.28874993324279785,
                    0.1357378512620926,
                    -0.08603701740503311,
                    -0.006427838001400232,
                    -0.05845366790890694,
                    0.18258212506771088,
                    0.09512430429458618,
                    0.11412230134010315,
                    -0.27819785475730896,
                    -0.14793093502521515,
                    -0.24397026002407074,
                    -0.16897152364253998,
                    0.11065170168876648,
                    0.14751222729682922,
                    -0.12385141849517822,
                    -0.22030343115329742,
                    -0.20917871594429016,
                    -0.03380000218749046,
                    -0.14224445819854736,
                    -0.053176961839199066,
                    -0.27764028310775757,
                    -0.19904819130897522,
                    -0.10057566314935684,
                    0.10412434488534927,
                    0.1486981064081192,
                    0.13686709105968475,
                    -0.017542356625199318,
                    -0.09218523651361465,
                    0.11245628446340561,
                    -0.11393287777900696,
                    0.10818050801753998,
                    0.08914358913898468,
                    -0.17270590364933014,
                    -0.18686333298683167,
                    -0.09329316020011902,
                    0.19699397683143616,
                    0.08998442441225052,
                    -0.10270901769399643,
                    -0.09047344326972961,
                    -0.020099923014640808,
                    -0.11073580384254456,
                    -0.04325785115361214,
                    0.03591271862387657,
                    0.12061147391796112,
                    0.04120959714055061,
                    -0.12149174511432648,
                    -0.07969168573617935,
                    -0.18639302253723145,
                    0.02816021256148815,
                    -0.04780106246471405,
                    0.19172349572181702,
                    -0.04768889769911766,
                    -0.01985643059015274,
                    -0.15551677346229553,
                    0.30551639199256897,
                    0.39445289969444275,
                    0.22379949688911438,
                    -0.28180304169654846,
                    0.1418815702199936,
                    -0.03846922144293785,
                    0.3095722794532776,
                    0.2820831835269928,
                    -0.11445034295320511,
                    0.011674069799482822,
                    0.10743988305330276,
                    0.08339424431324005,
                    0.27955034375190735,
                    0.16212938725948334,
                    -0.30035319924354553,
                    -0.1821473091840744,
                    -0.3182995319366455,
                    -0.3765016794204712,
                    0.1862308233976364,
                    0.13611115515232086,
                    -0.1579141914844513,
                    -0.31793996691703796,
                    -0.2331419289112091,
                    -0.06595197319984436,
                    -0.14036385715007782,
                    -0.18542706966400146,
                    -0.34562090039253235,
                    -0.2557430863380432,
                    -0.2271963357925415,
                    0.13576118648052216,
                    0.10612641274929047,
                    -0.00783915538340807,
                    -0.0308424923568964,
                    -0.05374763160943985,
                    0.13205495476722717,
                    0.08682741224765778,
                    0.11066337674856186,
                    0.05446767807006836,
                    -0.09750424325466156,
                    -0.17002658545970917,
                    -0.10374831408262253,
                    0.13081716001033783,
                    0.06881262362003326,
                    -0.019800975918769836,
                    -0.16449284553527832,
                    -0.10619838535785675,
                    -0.03361900895833969,
                    -0.15799373388290405,
                    0.05702400952577591,
                    0.03813024237751961,
                    0.039616819471120834,
                    -0.1250380575656891,
                    -0.05164918303489685,
                    -0.11577632278203964,
                    -0.08641187846660614,
                    -0.171394944190979,
                    0.303175151348114,
                    -0.009802399203181267,
                    -0.13164600729942322,
                    -0.16901715099811554,
                    -0.020499523729085922,
                    -0.4532618820667267,
                    -0.23166392743587494,
                    0.002982334466651082,
                    0.015111057087779045,
                    0.08500951528549194,
                    -0.019325992092490196,
                    -0.37940725684165955,
                    0.12590257823467255,
                    -0.13823489844799042,
                    -0.17163164913654327,
                    0.06233786419034004,
                    -0.3803737759590149,
                    -0.14393895864486694,
                    0.016042541712522507,
                    0.07865320146083832,
                    0.24236531555652618,
                    0.17666462063789368,
                    -0.10385292023420334,
                    0.08708924055099487,
                    0.2655417025089264,
                    0.06160366162657738,
                    0.1148553192615509,
                    -0.02337648533284664,
                    0.2304772436618805,
                    0.3600134551525116,
                    0.19191893935203552,
                    0.4337434768676758,
                    0.2947901487350464,
                    -0.24965372681617737,
                    0.13689076900482178,
                    -0.02833194099366665,
                    -0.0583764910697937,
                    -0.13047844171524048,
                    0.14641664922237396,
                    0.07758377492427826,
                    0.1933409720659256,
                    0.1240178719162941,
                    -0.1855093091726303,
                    -0.2134617120027542,
                    -0.06345471739768982,
                    0.18657195568084717,
                    -0.011836645193397999,
                    -0.1508966088294983,
                    -0.1173478215932846,
                    -0.10964878648519516,
                    -0.15094135701656342,
                    -0.09090404212474823,
                    0.11538294702768326,
                    0.05692524090409279,
                    0.01551777869462967,
                    -0.08693069964647293,
                    -0.16270262002944946,
                    -0.20019622147083282,
                    -0.16816659271717072,
                    -0.06127818673849106,
                    0.3558194935321808,
                    -0.14674167335033417,
                    -0.020643915981054306,
                    -0.16947351396083832,
                    0.3107934892177582,
                    0.22204530239105225,
                    0.19122155010700226,
                    -0.259943425655365,
                    0.26343441009521484,
                    -0.0719619169831276,
                    0.23026251792907715,
                    0.15596643090248108,
                    -0.13838070631027222,
                    -0.11598116159439087,
                    0.0174925085157156,
                    0.17852264642715454,
                    0.06281747668981552,
                    -0.012886960990726948,
                    -0.20032726228237152,
                    -0.17656613886356354,
                    -0.17641876637935638,
                    -0.23824992775917053,
                    0.10782327502965927,
                    0.04163745790719986,
                    -0.09638579934835434,
                    -0.2564607858657837,
                    -0.1875329166650772,
                    -0.11113516986370087,
                    -0.11421259492635727,
                    -0.21978339552879333,
                    -0.02968614734709263,
                    -0.19514228403568268,
                    -0.2597009241580963,
                    0.06111590191721916,
                    0.21816900372505188,
                    0.31593433022499084,
                    0.1718561202287674,
                    -0.18645669519901276,
                    0.04496888816356659,
                    -0.125401109457016,
                    0.36632317304611206,
                    0.26649969816207886,
                    -0.037466004490852356,
                    0.12406688183546066,
                    0.02985985204577446,
                    0.037639643996953964,
                    0.2900688052177429,
                    0.2722945213317871,
                    -0.3674871027469635,
                    -0.16976526379585266,
                    -0.200972780585289,
                    -0.27016323804855347,
                    0.12104912102222443,
                    0.05375916510820389,
                    -0.16134971380233765,
                    -0.17780153453350067,
                    -0.08761701732873917,
                    -0.08633306622505188,
                    0.010451815091073513,
                    -0.08529293537139893,
                    -0.4200858473777771,
                    -0.2876959443092346,
                    -0.23245376348495483,
                    0.1496039479970932,
                    0.12199294567108154,
                    0.2961964011192322,
                    0.14407716691493988,
                    -0.17549534142017365,
                    0.1415298730134964,
                    -0.019406495615839958,
                    0.18780772387981415,
                    0.13228172063827515,
                    -0.150739386677742,
                    -0.08470925688743591,
                    -0.006808450911194086,
                    0.16420570015907288,
                    0.1630544513463974,
                    -0.05048733204603195,
                    -0.13002675771713257,
                    -0.1904245913028717,
                    -0.13037177920341492,
                    -0.1370878666639328,
                    0.12079281359910965,
                    0.16016314923763275,
                    -0.12753164768218994,
                    -0.10737685114145279,
                    -0.046325381845235825,
                    -0.12117394804954529,
                    0.049401067197322845,
                    -0.09599332511425018,
                    -0.2327740490436554,
                    -0.24804162979125977,
                    -0.1562483012676239,
                    0.03348029404878616,
                    0.05205806717276573,
                    -0.2651057243347168,
                    -0.15893729031085968,
                    -0.06581903994083405,
                    0.07632501423358917,
                    0.01285593118518591,
                    0.04229677841067314,
                    -0.21854150295257568,
                    0.09808232635259628,
                    -0.1011127308011055,
                    -0.1192559003829956,
                    0.15787196159362793,
                    -0.1657986342906952,
                    -0.038414329290390015,
                    -0.02509741485118866,
                    0.07053760439157486,
                    0.17888522148132324,
                    0.07389141619205475,
                    -0.056264057755470276,
                    0.07292311638593674,
                    0.104532390832901,
                    -0.1184866651892662,
                    0.07608748972415924,
                    -0.0006021125009283423,
                    0.0838218703866005,
                    0.08286133408546448,
                    0.18754330277442932,
                    0.21389487385749817,
                    0.053822290152311325,
                    -0.16814963519573212,
                    0.037116922438144684,
                    -0.2524011731147766,
                    -0.15856818854808807,
                    -0.00573292700573802,
                    0.09740161150693893,
                    0.1564900428056717,
                    0.04823946952819824,
                    -0.07608514279127121,
                    0.2452172040939331,
                    -0.07502682507038116,
                    -0.026602404192090034,
                    -0.028215499594807625,
                    -0.14631099998950958,
                    -0.011196720413863659,
                    -0.013538369908928871,
                    -0.007646461017429829,
                    0.027573376893997192,
                    -0.05727073550224304,
                    -0.03584234416484833,
                    -0.009130808524787426,
                    0.18412019312381744,
                    -0.024023935198783875,
                    -0.05418737605214119,
                    -0.045561134815216064,
                    0.03635699674487114,
                    0.008390786126255989,
                    0.22985169291496277,
                    0.13306361436843872,
                    0.02796180173754692,
                    -0.19063812494277954,
                    0.031840063631534576,
                    -0.12914280593395233,
                    -0.10659465193748474,
                    0.027926132082939148,
                    0.0828094333410263,
                    -0.0138254314661026,
                    0.11558262258768082,
                    -0.13784892857074738,
                    0.015859924256801605,
                    -0.19762611389160156,
                    -0.004990699701011181,
                    0.036388348788022995,
                    -0.20411765575408936,
                    -0.23254913091659546,
                    -0.07400163263082504,
                    0.02207678183913231,
                    -0.005021088290959597,
                    -0.03732173144817352,
                    0.09352011233568192,
                    0.1851893812417984,
                    0.1917339563369751,
                    -0.06600593030452728,
                    -0.05593794584274292,
                    -0.007475009188055992,
                    0.040599144995212555,
                    0.05146845057606697,
                    0.26408061385154724,
                    0.02137664146721363,
                    -0.0008567238110117614,
                    -0.26031073927879333,
                    0.22973941266536713,
                    0.11267171800136566,
                    0.05814057216048241,
                    -0.08244844526052475,
                    0.23494163155555725,
                    -0.1290268450975418,
                    0.24338175356388092,
                    0.05366106331348419,
                    -0.16595949232578278,
                    -0.17368698120117188,
                    -0.0720696896314621,
                    0.23217526078224182,
                    0.08448106050491333,
                    -0.11798539757728577,
                    -0.2308529168367386,
                    -0.18005454540252686,
                    -0.17520631849765778,
                    -0.13597489893436432,
                    0.12969852983951569,
                    0.16672715544700623,
                    -0.003029231447726488,
                    -0.19736823439598083,
                    -0.13906826078891754,
                    -0.2271888703107834,
                    -0.0033706543035805225,
                    -0.07510460168123245,
                    0.1521308273077011,
                    -0.14774726331233978,
                    -0.10565146803855896,
                    -0.15754854679107666,
                    0.27243730425834656,
                    0.3248923718929291,
                    0.16670018434524536,
                    -0.3199734687805176,
                    0.30065321922302246,
                    -0.07264425605535507,
                    0.27095216512680054,
                    0.23111256957054138,
                    -0.08041053265333176,
                    -0.15785011649131775,
                    -0.0021816932130604982,
                    0.16658219695091248,
                    0.1751619279384613,
                    0.0429631806910038,
                    -0.33239316940307617,
                    -0.20961962640285492,
                    -0.3424987196922302,
                    -0.3826615810394287,
                    0.1498473882675171,
                    0.13972751796245575,
                    -0.17096678912639618,
                    -0.3249824345111847,
                    -0.18089766800403595,
                    -0.17080780863761902,
                    -0.12674765288829803,
                    -0.22286862134933472,
                    -0.2637612521648407,
                    -0.2268567532300949,
                    -0.18994207680225372,
                    0.1121140718460083,
                    0.19636566936969757,
                    -0.10686282813549042,
                    -0.11189991235733032,
                    -0.1101750060915947,
                    0.060447338968515396,
                    0.04971516504883766,
                    0.25680288672447205,
                    -0.08272051811218262,
                    -0.13748084008693695,
                    -0.11881913244724274,
                    -0.1376112401485443,
                    0.2209518849849701,
                    -0.17930714786052704,
                    -0.2481985241174698,
                    -0.0999826192855835,
                    -0.0894702821969986,
                    -0.12841348350048065,
                    -0.14932270348072052,
                    0.125099316239357,
                    0.07734132558107376,
                    0.08913324028253555,
                    -0.11458440870046616,
                    0.000691225694026798,
                    -0.12268953025341034,
                    -0.015784932300448418,
                    -0.09772690385580063,
                    0.36332613229751587,
